digraph Tree {
node [shape=box, style="filled, rounded", color="black", fontname="helvetica"] ;
edge [fontname="helvetica"] ;
0 [label=<Status &le; 0.5<br/>entropy = 0.627<br/>samples = 3150<br/>value = [2655, 495]<br/>class = Not Churn>, fillcolor="#ea985e"] ;
1 [label=<Complains &le; 0.5<br/>entropy = 0.998<br/>samples = 782<br/>value = [412, 370]<br/>class = Not Churn>, fillcolor="#fcf2eb"] ;
0 -> 1 [labeldistance=2.5, labelangle=45, headlabel="True"] ;
2 [label=<Subscription  Length &le; 27.5<br/>entropy = 0.948<br/>samples = 624<br/>value = [395, 229]<br/>class = Not Churn>, fillcolor="#f4caac"] ;
1 -> 2 ;
3 [label=<entropy = 0.238<br/>samples = 77<br/>value = [74, 3]<br/>class = Not Churn>, fillcolor="#e68641"] ;
2 -> 3 ;
4 [label=<Distinct Called Numbers &le; 3.5<br/>entropy = 0.978<br/>samples = 547<br/>value = [321, 226]<br/>class = Not Churn>, fillcolor="#f7dac4"] ;
2 -> 4 ;
5 [label=<entropy = 0.93<br/>samples = 159<br/>value = [55, 104]<br/>class = Churn>, fillcolor="#a2d1f3"] ;
4 -> 5 ;
6 [label=<Distinct Called Numbers &le; 26.5<br/>entropy = 0.898<br/>samples = 388<br/>value = [266, 122]<br/>class = Not Churn>, fillcolor="#f1bb94"] ;
4 -> 6 ;
7 [label=<Seconds of Use &le; 2682.5<br/>entropy = 0.844<br/>samples = 357<br/>value = [260, 97]<br/>class = Not Churn>, fillcolor="#efb083"] ;
6 -> 7 ;
8 [label=<Call  Failure &le; 17.5<br/>entropy = 0.792<br/>samples = 336<br/>value = [256, 80]<br/>class = Not Churn>, fillcolor="#eda877"] ;
7 -> 8 ;
9 [label=<Frequency of use &le; 40.5<br/>entropy = 0.718<br/>samples = 313<br/>value = [251, 62]<br/>class = Not Churn>, fillcolor="#eba06a"] ;
8 -> 9 ;
10 [label=<entropy = 0.808<br/>samples = 250<br/>value = [188, 62]<br/>class = Not Churn>, fillcolor="#eeab7a"] ;
9 -> 10 ;
11 [label=<entropy = 0.0<br/>samples = 63<br/>value = [63, 0]<br/>class = Not Churn>, fillcolor="#e58139"] ;
9 -> 11 ;
12 [label=<entropy = 0.755<br/>samples = 23<br/>value = [5, 18]<br/>class = Churn>, fillcolor="#70b8ec"] ;
8 -> 12 ;
13 [label=<entropy = 0.702<br/>samples = 21<br/>value = [4, 17]<br/>class = Churn>, fillcolor="#68b4eb"] ;
7 -> 13 ;
14 [label=<entropy = 0.709<br/>samples = 31<br/>value = [6, 25]<br/>class = Churn>, fillcolor="#69b5eb"] ;
6 -> 14 ;
15 [label=<Frequency of use &le; 47.5<br/>entropy = 0.493<br/>samples = 158<br/>value = [17, 141]<br/>class = Churn>, fillcolor="#51a9e8"] ;
1 -> 15 ;
16 [label=<entropy = 0.0<br/>samples = 88<br/>value = [0, 88]<br/>class = Churn>, fillcolor="#399de5"] ;
15 -> 16 ;
17 [label=<Frequency of SMS &le; 17.5<br/>entropy = 0.8<br/>samples = 70<br/>value = [17, 53]<br/>class = Churn>, fillcolor="#79bced"] ;
15 -> 17 ;
18 [label=<entropy = 0.75<br/>samples = 14<br/>value = [11, 3]<br/>class = Not Churn>, fillcolor="#eca36f"] ;
17 -> 18 ;
19 [label=<entropy = 0.491<br/>samples = 56<br/>value = [6, 50]<br/>class = Churn>, fillcolor="#51a9e8"] ;
17 -> 19 ;
20 [label=<Complains &le; 0.5<br/>entropy = 0.298<br/>samples = 2368<br/>value = [2243, 125]<br/>class = Not Churn>, fillcolor="#e68844"] ;
0 -> 20 [labeldistance=2.5, labelangle=-45, headlabel="False"] ;
21 [label=<Subscription  Length &le; 10.5<br/>entropy = 0.189<br/>samples = 2285<br/>value = [2219, 66]<br/>class = Not Churn>, fillcolor="#e6853f"] ;
20 -> 21 ;
22 [label=<Seconds of Use &le; 2242.5<br/>entropy = 0.88<br/>samples = 77<br/>value = [54, 23]<br/>class = Not Churn>, fillcolor="#f0b78d"] ;
21 -> 22 ;
23 [label=<entropy = 0.25<br/>samples = 24<br/>value = [1, 23]<br/>class = Churn>, fillcolor="#42a1e6"] ;
22 -> 23 ;
24 [label=<entropy = 0.0<br/>samples = 53<br/>value = [53, 0]<br/>class = Not Churn>, fillcolor="#e58139"] ;
22 -> 24 ;
25 [label=<Frequency of SMS &le; 46.5<br/>entropy = 0.138<br/>samples = 2208<br/>value = [2165, 43]<br/>class = Not Churn>, fillcolor="#e6843d"] ;
21 -> 25 ;
26 [label=<Distinct Called Numbers &le; 28.5<br/>entropy = 0.209<br/>samples = 1308<br/>value = [1265, 43]<br/>class = Not Churn>, fillcolor="#e68540"] ;
25 -> 26 ;
27 [label=<Seconds of Use &le; 4908.0<br/>entropy = 0.294<br/>samples = 811<br/>value = [769, 42]<br/>class = Not Churn>, fillcolor="#e68844"] ;
26 -> 27 ;
28 [label=<entropy = 0.179<br/>samples = 630<br/>value = [613, 17]<br/>class = Not Churn>, fillcolor="#e6843e"] ;
27 -> 28 ;
29 [label=<Seconds of Use &le; 6020.5<br/>entropy = 0.579<br/>samples = 181<br/>value = [156, 25]<br/>class = Not Churn>, fillcolor="#e99559"] ;
27 -> 29 ;
30 [label=<Distinct Called Numbers &le; 17.5<br/>entropy = 0.918<br/>samples = 72<br/>value = [48, 24]<br/>class = Not Churn>, fillcolor="#f2c09c"] ;
29 -> 30 ;
31 [label=<entropy = 0.378<br/>samples = 41<br/>value = [38, 3]<br/>class = Not Churn>, fillcolor="#e78b49"] ;
30 -> 31 ;
32 [label=<entropy = 0.907<br/>samples = 31<br/>value = [10, 21]<br/>class = Churn>, fillcolor="#97ccf1"] ;
30 -> 32 ;
33 [label=<entropy = 0.075<br/>samples = 109<br/>value = [108, 1]<br/>class = Not Churn>, fillcolor="#e5823b"] ;
29 -> 33 ;
34 [label=<entropy = 0.021<br/>samples = 497<br/>value = [496, 1]<br/>class = Not Churn>, fillcolor="#e58139"] ;
26 -> 34 ;
35 [label=<entropy = 0.0<br/>samples = 900<br/>value = [900, 0]<br/>class = Not Churn>, fillcolor="#e58139"] ;
25 -> 35 ;
36 [label=<Seconds of Use &le; 5983.0<br/>entropy = 0.868<br/>samples = 83<br/>value = [24, 59]<br/>class = Churn>, fillcolor="#8ac5f0"] ;
20 -> 36 ;
37 [label=<entropy = 0.122<br/>samples = 60<br/>value = [1, 59]<br/>class = Churn>, fillcolor="#3c9fe5"] ;
36 -> 37 ;
38 [label=<entropy = 0.0<br/>samples = 23<br/>value = [23, 0]<br/>class = Not Churn>, fillcolor="#e58139"] ;
36 -> 38 ;
}
